digraph Tree {
node [shape=box] ;
0 [label="X[892] <= -0.309\ngini = 0.472\nsamples = 668\nvalue = [413, 255]"] ;
1 [label="X[894] <= 1.794\ngini = 0.38\nsamples = 235\nvalue = [60, 175]"] ;
0 -> 1 [labeldistance=2.5, labelangle=45, headlabel="True"] ;
2 [label="X[895] <= 3.871\ngini = 0.351\nsamples = 220\nvalue = [50, 170]"] ;
1 -> 2 ;
3 [label="X[893] <= 0.233\ngini = 0.34\nsamples = 216\nvalue = [47, 169]"] ;
2 -> 3 ;
4 [label="X[896] <= 0.04\ngini = 0.38\nsamples = 149\nvalue = [38, 111]"] ;
3 -> 4 ;
5 [label="X[893] <= -0.767\ngini = 0.425\nsamples = 88\nvalue = [27, 61]"] ;
4 -> 5 ;
6 [label="X[894] <= 0.886\ngini = 0.312\nsamples = 31\nvalue = [6, 25]"] ;
5 -> 6 ;
7 [label="X[17] <= 14.9\ngini = 0.238\nsamples = 29\nvalue = [4, 25]"] ;
6 -> 7 ;
8 [label="X[829] <= 14.9\ngini = 0.191\nsamples = 28\nvalue = [3, 25]"] ;
7 -> 8 ;
9 [label="X[660] <= 14.9\ngini = 0.137\nsamples = 27\nvalue = [2, 25]"] ;
8 -> 9 ;
10 [label="X[789] <= 14.9\ngini = 0.074\nsamples = 26\nvalue = [1, 25]"] ;
9 -> 10 ;
11 [label="gini = 0.0\nsamples = 25\nvalue = [0, 25]"] ;
10 -> 11 ;
12 [label="gini = 0.0\nsamples = 1\nvalue = [1, 0]"] ;
10 -> 12 ;
13 [label="gini = 0.0\nsamples = 1\nvalue = [1, 0]"] ;
9 -> 13 ;
14 [label="gini = 0.0\nsamples = 1\nvalue = [1, 0]"] ;
8 -> 14 ;
15 [label="gini = 0.0\nsamples = 1\nvalue = [1, 0]"] ;
7 -> 15 ;
16 [label="gini = 0.0\nsamples = 2\nvalue = [2, 0]"] ;
6 -> 16 ;
17 [label="X[894] <= -0.021\ngini = 0.465\nsamples = 57\nvalue = [21, 36]"] ;
5 -> 17 ;
18 [label="X[895] <= 0.147\ngini = 0.415\nsamples = 34\nvalue = [10, 24]"] ;
17 -> 18 ;
19 [label="X[893] <= -0.344\ngini = 0.459\nsamples = 28\nvalue = [10, 18]"] ;
18 -> 19 ;
20 [label="X[893] <= -0.613\ngini = 0.494\nsamples = 9\nvalue = [5, 4]"] ;
19 -> 20 ;
21 [label="gini = 0.0\nsamples = 2\nvalue = [0, 2]"] ;
20 -> 21 ;
22 [label="X[111] <= 14.9\ngini = 0.408\nsamples = 7\nvalue = [5, 2]"] ;
20 -> 22 ;
23 [label="X[609] <= 14.9\ngini = 0.278\nsamples = 6\nvalue = [5, 1]"] ;
22 -> 23 ;
24 [label="gini = 0.0\nsamples = 5\nvalue = [5, 0]"] ;
23 -> 24 ;
25 [label="gini = 0.0\nsamples = 1\nvalue = [0, 1]"] ;
23 -> 25 ;
26 [label="gini = 0.0\nsamples = 1\nvalue = [0, 1]"] ;
22 -> 26 ;
27 [label="X[656] <= 14.9\ngini = 0.388\nsamples = 19\nvalue = [5, 14]"] ;
19 -> 27 ;
28 [label="X[528] <= 14.9\ngini = 0.346\nsamples = 18\nvalue = [4, 14]"] ;
27 -> 28 ;
29 [label="X[527] <= 14.9\ngini = 0.291\nsamples = 17\nvalue = [3, 14]"] ;
28 -> 29 ;
30 [label="X[613] <= 14.9\ngini = 0.219\nsamples = 16\nvalue = [2, 14]"] ;
29 -> 30 ;
31 [label="X[123] <= 14.9\ngini = 0.124\nsamples = 15\nvalue = [1, 14]"] ;
30 -> 31 ;
32 [label="gini = 0.0\nsamples = 14\nvalue = [0, 14]"] ;
31 -> 32 ;
33 [label="gini = 0.0\nsamples = 1\nvalue = [1, 0]"] ;
31 -> 33 ;
34 [label="gini = 0.0\nsamples = 1\nvalue = [1, 0]"] ;
30 -> 34 ;
35 [label="gini = 0.0\nsamples = 1\nvalue = [1, 0]"] ;
29 -> 35 ;
36 [label="gini = 0.0\nsamples = 1\nvalue = [1, 0]"] ;
28 -> 36 ;
37 [label="gini = 0.0\nsamples = 1\nvalue = [1, 0]"] ;
27 -> 37 ;
38 [label="gini = 0.0\nsamples = 6\nvalue = [0, 6]"] ;
18 -> 38 ;
39 [label="X[893] <= -0.613\ngini = 0.499\nsamples = 23\nvalue = [11, 12]"] ;
17 -> 39 ;
40 [label="gini = 0.0\nsamples = 3\nvalue = [3, 0]"] ;
39 -> 40 ;
41 [label="X[893] <= -0.382\ngini = 0.48\nsamples = 20\nvalue = [8, 12]"] ;
39 -> 41 ;
42 [label="gini = 0.0\nsamples = 5\nvalue = [0, 5]"] ;
41 -> 42 ;
43 [label="X[893] <= -0.152\ngini = 0.498\nsamples = 15\nvalue = [8, 7]"] ;
41 -> 43 ;
44 [label="X[160] <= 14.9\ngini = 0.278\nsamples = 6\nvalue = [5, 1]"] ;
43 -> 44 ;
45 [label="gini = 0.0\nsamples = 5\nvalue = [5, 0]"] ;
44 -> 45 ;
46 [label="gini = 0.0\nsamples = 1\nvalue = [0, 1]"] ;
44 -> 46 ;
47 [label="X[895] <= 0.147\ngini = 0.444\nsamples = 9\nvalue = [3, 6]"] ;
43 -> 47 ;
48 [label="gini = 0.0\nsamples = 5\nvalue = [0, 5]"] ;
47 -> 48 ;
49 [label="X[893] <= 0.079\ngini = 0.375\nsamples = 4\nvalue = [3, 1]"] ;
47 -> 49 ;
50 [label="gini = 0.0\nsamples = 3\nvalue = [3, 0]"] ;
49 -> 50 ;
51 [label="gini = 0.0\nsamples = 1\nvalue = [0, 1]"] ;
49 -> 51 ;
52 [label="X[46] <= 14.9\ngini = 0.296\nsamples = 61\nvalue = [11, 50]"] ;
4 -> 52 ;
53 [label="X[882] <= 14.9\ngini = 0.278\nsamples = 60\nvalue = [10, 50]"] ;
52 -> 53 ;
54 [label="X[97] <= 14.9\ngini = 0.259\nsamples = 59\nvalue = [9, 50]"] ;
53 -> 54 ;
55 [label="X[102] <= 14.9\ngini = 0.238\nsamples = 58\nvalue = [8, 50]"] ;
54 -> 55 ;
56 [label="X[100] <= 14.9\ngini = 0.215\nsamples = 57\nvalue = [7, 50]"] ;
55 -> 56 ;
57 [label="X[135] <= 14.9\ngini = 0.191\nsamples = 56\nvalue = [6, 50]"] ;
56 -> 57 ;
58 [label="X[607] <= 14.9\ngini = 0.165\nsamples = 55\nvalue = [5, 50]"] ;
57 -> 58 ;
59 [label="X[133] <= 14.9\ngini = 0.137\nsamples = 54\nvalue = [4, 50]"] ;
58 -> 59 ;
60 [label="X[883] <= 14.9\ngini = 0.107\nsamples = 53\nvalue = [3, 50]"] ;
59 -> 60 ;
61 [label="X[352] <= 14.9\ngini = 0.074\nsamples = 52\nvalue = [2, 50]"] ;
60 -> 61 ;
62 [label="X[99] <= 14.9\ngini = 0.038\nsamples = 51\nvalue = [1, 50]"] ;
61 -> 62 ;
63 [label="gini = 0.0\nsamples = 50\nvalue = [0, 50]"] ;
62 -> 63 ;
64 [label="gini = 0.0\nsamples = 1\nvalue = [1, 0]"] ;
62 -> 64 ;
65 [label="gini = 0.0\nsamples = 1\nvalue = [1, 0]"] ;
61 -> 65 ;
66 [label="gini = 0.0\nsamples = 1\nvalue = [1, 0]"] ;
60 -> 66 ;
67 [label="gini = 0.0\nsamples = 1\nvalue = [1, 0]"] ;
59 -> 67 ;
68 [label="gini = 0.0\nsamples = 1\nvalue = [1, 0]"] ;
58 -> 68 ;
69 [label="gini = 0.0\nsamples = 1\nvalue = [1, 0]"] ;
57 -> 69 ;
70 [label="gini = 0.0\nsamples = 1\nvalue = [1, 0]"] ;
56 -> 70 ;
71 [label="gini = 0.0\nsamples = 1\nvalue = [1, 0]"] ;
55 -> 71 ;
72 [label="gini = 0.0\nsamples = 1\nvalue = [1, 0]"] ;
54 -> 72 ;
73 [label="gini = 0.0\nsamples = 1\nvalue = [1, 0]"] ;
53 -> 73 ;
74 [label="gini = 0.0\nsamples = 1\nvalue = [1, 0]"] ;
52 -> 74 ;
75 [label="X[702] <= 14.9\ngini = 0.233\nsamples = 67\nvalue = [9, 58]"] ;
3 -> 75 ;
76 [label="X[64] <= 14.9\ngini = 0.213\nsamples = 66\nvalue = [8, 58]"] ;
75 -> 76 ;
77 [label="X[695] <= 14.9\ngini = 0.192\nsamples = 65\nvalue = [7, 58]"] ;
76 -> 77 ;
78 [label="X[450] <= 14.9\ngini = 0.17\nsamples = 64\nvalue = [6, 58]"] ;
77 -> 78 ;
79 [label="X[7] <= 14.9\ngini = 0.146\nsamples = 63\nvalue = [5, 58]"] ;
78 -> 79 ;
80 [label="X[496] <= 14.9\ngini = 0.121\nsamples = 62\nvalue = [4, 58]"] ;
79 -> 80 ;
81 [label="X[482] <= 14.9\ngini = 0.094\nsamples = 61\nvalue = [3, 58]"] ;
80 -> 81 ;
82 [label="X[256] <= 14.9\ngini = 0.064\nsamples = 60\nvalue = [2, 58]"] ;
81 -> 82 ;
83 [label="X[388] <= 14.9\ngini = 0.033\nsamples = 59\nvalue = [1, 58]"] ;
82 -> 83 ;
84 [label="gini = 0.0\nsamples = 58\nvalue = [0, 58]"] ;
83 -> 84 ;
85 [label="gini = 0.0\nsamples = 1\nvalue = [1, 0]"] ;
83 -> 85 ;
86 [label="gini = 0.0\nsamples = 1\nvalue = [1, 0]"] ;
82 -> 86 ;
87 [label="gini = 0.0\nsamples = 1\nvalue = [1, 0]"] ;
81 -> 87 ;
88 [label="gini = 0.0\nsamples = 1\nvalue = [1, 0]"] ;
80 -> 88 ;
89 [label="gini = 0.0\nsamples = 1\nvalue = [1, 0]"] ;
79 -> 89 ;
90 [label="gini = 0.0\nsamples = 1\nvalue = [1, 0]"] ;
78 -> 90 ;
91 [label="gini = 0.0\nsamples = 1\nvalue = [1, 0]"] ;
77 -> 91 ;
92 [label="gini = 0.0\nsamples = 1\nvalue = [1, 0]"] ;
76 -> 92 ;
93 [label="gini = 0.0\nsamples = 1\nvalue = [1, 0]"] ;
75 -> 93 ;
94 [label="X[44] <= 14.9\ngini = 0.375\nsamples = 4\nvalue = [3, 1]"] ;
2 -> 94 ;
95 [label="gini = 0.0\nsamples = 3\nvalue = [3, 0]"] ;
94 -> 95 ;
96 [label="gini = 0.0\nsamples = 1\nvalue = [0, 1]"] ;
94 -> 96 ;
97 [label="X[895] <= 0.147\ngini = 0.444\nsamples = 15\nvalue = [10, 5]"] ;
1 -> 97 ;
98 [label="gini = 0.0\nsamples = 2\nvalue = [0, 2]"] ;
97 -> 98 ;
99 [label="X[258] <= 14.9\ngini = 0.355\nsamples = 13\nvalue = [10, 3]"] ;
97 -> 99 ;
100 [label="X[43] <= 14.9\ngini = 0.278\nsamples = 12\nvalue = [10, 2]"] ;
99 -> 100 ;
101 [label="X[25] <= 14.9\ngini = 0.165\nsamples = 11\nvalue = [10, 1]"] ;
100 -> 101 ;
102 [label="gini = 0.0\nsamples = 10\nvalue = [10, 0]"] ;
101 -> 102 ;
103 [label="gini = 0.0\nsamples = 1\nvalue = [0, 1]"] ;
101 -> 103 ;
104 [label="gini = 0.0\nsamples = 1\nvalue = [0, 1]"] ;
100 -> 104 ;
105 [label="gini = 0.0\nsamples = 1\nvalue = [0, 1]"] ;
99 -> 105 ;
106 [label="X[893] <= -1.267\ngini = 0.301\nsamples = 433\nvalue = [353, 80]"] ;
0 -> 106 [labeldistance=2.5, labelangle=-45, headlabel="False"] ;
107 [label="X[894] <= 1.794\ngini = 0.499\nsamples = 27\nvalue = [13, 14]"] ;
106 -> 107 ;
108 [label="X[346] <= 14.9\ngini = 0.133\nsamples = 14\nvalue = [1, 13]"] ;
107 -> 108 ;
109 [label="gini = 0.0\nsamples = 13\nvalue = [0, 13]"] ;
108 -> 109 ;
110 [label="gini = 0.0\nsamples = 1\nvalue = [1, 0]"] ;
108 -> 110 ;
111 [label="X[42] <= 14.9\ngini = 0.142\nsamples = 13\nvalue = [12, 1]"] ;
107 -> 111 ;
112 [label="gini = 0.0\nsamples = 12\nvalue = [12, 0]"] ;
111 -> 112 ;
113 [label="gini = 0.0\nsamples = 1\nvalue = [0, 1]"] ;
111 -> 113 ;
114 [label="X[896] <= 1.3\ngini = 0.272\nsamples = 406\nvalue = [340, 66]"] ;
106 -> 114 ;
115 [label="X[864] <= 14.9\ngini = 0.234\nsamples = 340\nvalue = [294, 46]"] ;
114 -> 115 ;
116 [label="X[336] <= 14.9\ngini = 0.23\nsamples = 339\nvalue = [294, 45]"] ;
115 -> 116 ;
117 [label="X[452] <= 14.9\ngini = 0.226\nsamples = 338\nvalue = [294, 44]"] ;
116 -> 117 ;
118 [label="X[199] <= 14.9\ngini = 0.223\nsamples = 337\nvalue = [294, 43]"] ;
117 -> 118 ;
119 [label="X[737] <= 14.9\ngini = 0.219\nsamples = 336\nvalue = [294, 42]"] ;
118 -> 119 ;
120 [label="X[213] <= 14.9\ngini = 0.215\nsamples = 335\nvalue = [294, 41]"] ;
119 -> 120 ;
121 [label="X[402] <= 14.9\ngini = 0.211\nsamples = 334\nvalue = [294, 40]"] ;
120 -> 121 ;
122 [label="X[196] <= 14.9\ngini = 0.207\nsamples = 333\nvalue = [294, 39]"] ;
121 -> 122 ;
123 [label="X[801] <= 14.9\ngini = 0.203\nsamples = 332\nvalue = [294, 38]"] ;
122 -> 123 ;
124 [label="X[493] <= 14.9\ngini = 0.199\nsamples = 331\nvalue = [294, 37]"] ;
123 -> 124 ;
125 [label="X[416] <= 14.9\ngini = 0.194\nsamples = 330\nvalue = [294, 36]"] ;
124 -> 125 ;
126 [label="X[221] <= 14.9\ngini = 0.19\nsamples = 329\nvalue = [294, 35]"] ;
125 -> 126 ;
127 [label="X[559] <= 14.9\ngini = 0.186\nsamples = 328\nvalue = [294, 34]"] ;
126 -> 127 ;
128 [label="X[661] <= 14.9\ngini = 0.181\nsamples = 327\nvalue = [294, 33]"] ;
127 -> 128 ;
129 [label="X[393] <= 14.9\ngini = 0.177\nsamples = 326\nvalue = [294, 32]"] ;
128 -> 129 ;
130 [label="X[166] <= 14.9\ngini = 0.173\nsamples = 325\nvalue = [294, 31]"] ;
129 -> 130 ;
131 [label="X[531] <= 14.9\ngini = 0.168\nsamples = 324\nvalue = [294, 30]"] ;
130 -> 131 ;
132 [label="X[252] <= 14.9\ngini = 0.163\nsamples = 323\nvalue = [294, 29]"] ;
131 -> 132 ;
133 [label="X[158] <= 14.9\ngini = 0.159\nsamples = 322\nvalue = [294, 28]"] ;
132 -> 133 ;
134 [label="X[144] <= 14.9\ngini = 0.154\nsamples = 321\nvalue = [294, 27]"] ;
133 -> 134 ;
135 [label="X[378] <= 14.9\ngini = 0.149\nsamples = 320\nvalue = [294, 26]"] ;
134 -> 135 ;
136 [label="X[698] <= 14.9\ngini = 0.144\nsamples = 319\nvalue = [294, 25]"] ;
135 -> 136 ;
137 [label="X[21] <= 14.9\ngini = 0.14\nsamples = 318\nvalue = [294, 24]"] ;
136 -> 137 ;
138 [label="X[516] <= 14.9\ngini = 0.135\nsamples = 317\nvalue = [294, 23]"] ;
137 -> 138 ;
139 [label="X[80] <= 14.9\ngini = 0.13\nsamples = 316\nvalue = [294, 22]"] ;
138 -> 139 ;
140 [label="X[886] <= 14.9\ngini = 0.124\nsamples = 315\nvalue = [294, 21]"] ;
139 -> 140 ;
141 [label="X[264] <= 14.9\ngini = 0.119\nsamples = 314\nvalue = [294, 20]"] ;
140 -> 141 ;
142 [label="X[106] <= 14.9\ngini = 0.114\nsamples = 313\nvalue = [294, 19]"] ;
141 -> 142 ;
143 [label="X[765] <= 14.9\ngini = 0.109\nsamples = 312\nvalue = [294, 18]"] ;
142 -> 143 ;
144 [label="X[735] <= 14.9\ngini = 0.103\nsamples = 311\nvalue = [294, 17]"] ;
143 -> 144 ;
145 [label="X[714] <= 14.9\ngini = 0.098\nsamples = 310\nvalue = [294, 16]"] ;
144 -> 145 ;
146 [label="X[192] <= 14.9\ngini = 0.092\nsamples = 309\nvalue = [294, 15]"] ;
145 -> 146 ;
147 [label="X[251] <= 14.9\ngini = 0.087\nsamples = 308\nvalue = [294, 14]"] ;
146 -> 147 ;
148 [label="X[73] <= 14.9\ngini = 0.081\nsamples = 307\nvalue = [294, 13]"] ;
147 -> 148 ;
149 [label="X[92] <= 14.9\ngini = 0.075\nsamples = 306\nvalue = [294, 12]"] ;
148 -> 149 ;
150 [label="X[592] <= 14.9\ngini = 0.07\nsamples = 305\nvalue = [294, 11]"] ;
149 -> 150 ;
151 [label="X[867] <= 14.9\ngini = 0.064\nsamples = 304\nvalue = [294, 10]"] ;
150 -> 151 ;
152 [label="X[817] <= 14.9\ngini = 0.058\nsamples = 303\nvalue = [294, 9]"] ;
151 -> 152 ;
153 [label="X[518] <= 14.9\ngini = 0.052\nsamples = 302\nvalue = [294, 8]"] ;
152 -> 153 ;
154 [label="X[788] <= 14.9\ngini = 0.045\nsamples = 301\nvalue = [294, 7]"] ;
153 -> 154 ;
155 [label="X[78] <= 14.9\ngini = 0.039\nsamples = 300\nvalue = [294, 6]"] ;
154 -> 155 ;
156 [label="X[29] <= 14.9\ngini = 0.033\nsamples = 299\nvalue = [294, 5]"] ;
155 -> 156 ;
157 [label="X[791] <= 14.9\ngini = 0.026\nsamples = 298\nvalue = [294, 4]"] ;
156 -> 157 ;
158 [label="X[151] <= 14.9\ngini = 0.02\nsamples = 297\nvalue = [294, 3]"] ;
157 -> 158 ;
159 [label="X[379] <= 14.9\ngini = 0.013\nsamples = 296\nvalue = [294, 2]"] ;
158 -> 159 ;
160 [label="X[351] <= 14.9\ngini = 0.007\nsamples = 295\nvalue = [294, 1]"] ;
159 -> 160 ;
161 [label="gini = 0.0\nsamples = 294\nvalue = [294, 0]"] ;
160 -> 161 ;
162 [label="gini = 0.0\nsamples = 1\nvalue = [0, 1]"] ;
160 -> 162 ;
163 [label="gini = 0.0\nsamples = 1\nvalue = [0, 1]"] ;
159 -> 163 ;
164 [label="gini = 0.0\nsamples = 1\nvalue = [0, 1]"] ;
158 -> 164 ;
165 [label="gini = 0.0\nsamples = 1\nvalue = [0, 1]"] ;
157 -> 165 ;
166 [label="gini = 0.0\nsamples = 1\nvalue = [0, 1]"] ;
156 -> 166 ;
167 [label="gini = 0.0\nsamples = 1\nvalue = [0, 1]"] ;
155 -> 167 ;
168 [label="gini = 0.0\nsamples = 1\nvalue = [0, 1]"] ;
154 -> 168 ;
169 [label="gini = 0.0\nsamples = 1\nvalue = [0, 1]"] ;
153 -> 169 ;
170 [label="gini = 0.0\nsamples = 1\nvalue = [0, 1]"] ;
152 -> 170 ;
171 [label="gini = 0.0\nsamples = 1\nvalue = [0, 1]"] ;
151 -> 171 ;
172 [label="gini = 0.0\nsamples = 1\nvalue = [0, 1]"] ;
150 -> 172 ;
173 [label="gini = 0.0\nsamples = 1\nvalue = [0, 1]"] ;
149 -> 173 ;
174 [label="gini = 0.0\nsamples = 1\nvalue = [0, 1]"] ;
148 -> 174 ;
175 [label="gini = 0.0\nsamples = 1\nvalue = [0, 1]"] ;
147 -> 175 ;
176 [label="gini = 0.0\nsamples = 1\nvalue = [0, 1]"] ;
146 -> 176 ;
177 [label="gini = 0.0\nsamples = 1\nvalue = [0, 1]"] ;
145 -> 177 ;
178 [label="gini = 0.0\nsamples = 1\nvalue = [0, 1]"] ;
144 -> 178 ;
179 [label="gini = 0.0\nsamples = 1\nvalue = [0, 1]"] ;
143 -> 179 ;
180 [label="gini = 0.0\nsamples = 1\nvalue = [0, 1]"] ;
142 -> 180 ;
181 [label="gini = 0.0\nsamples = 1\nvalue = [0, 1]"] ;
141 -> 181 ;
182 [label="gini = 0.0\nsamples = 1\nvalue = [0, 1]"] ;
140 -> 182 ;
183 [label="gini = 0.0\nsamples = 1\nvalue = [0, 1]"] ;
139 -> 183 ;
184 [label="gini = 0.0\nsamples = 1\nvalue = [0, 1]"] ;
138 -> 184 ;
185 [label="gini = 0.0\nsamples = 1\nvalue = [0, 1]"] ;
137 -> 185 ;
186 [label="gini = 0.0\nsamples = 1\nvalue = [0, 1]"] ;
136 -> 186 ;
187 [label="gini = 0.0\nsamples = 1\nvalue = [0, 1]"] ;
135 -> 187 ;
188 [label="gini = 0.0\nsamples = 1\nvalue = [0, 1]"] ;
134 -> 188 ;
189 [label="gini = 0.0\nsamples = 1\nvalue = [0, 1]"] ;
133 -> 189 ;
190 [label="gini = 0.0\nsamples = 1\nvalue = [0, 1]"] ;
132 -> 190 ;
191 [label="gini = 0.0\nsamples = 1\nvalue = [0, 1]"] ;
131 -> 191 ;
192 [label="gini = 0.0\nsamples = 1\nvalue = [0, 1]"] ;
130 -> 192 ;
193 [label="gini = 0.0\nsamples = 1\nvalue = [0, 1]"] ;
129 -> 193 ;
194 [label="gini = 0.0\nsamples = 1\nvalue = [0, 1]"] ;
128 -> 194 ;
195 [label="gini = 0.0\nsamples = 1\nvalue = [0, 1]"] ;
127 -> 195 ;
196 [label="gini = 0.0\nsamples = 1\nvalue = [0, 1]"] ;
126 -> 196 ;
197 [label="gini = 0.0\nsamples = 1\nvalue = [0, 1]"] ;
125 -> 197 ;
198 [label="gini = 0.0\nsamples = 1\nvalue = [0, 1]"] ;
124 -> 198 ;
199 [label="gini = 0.0\nsamples = 1\nvalue = [0, 1]"] ;
123 -> 199 ;
200 [label="gini = 0.0\nsamples = 1\nvalue = [0, 1]"] ;
122 -> 200 ;
201 [label="gini = 0.0\nsamples = 1\nvalue = [0, 1]"] ;
121 -> 201 ;
202 [label="gini = 0.0\nsamples = 1\nvalue = [0, 1]"] ;
120 -> 202 ;
203 [label="gini = 0.0\nsamples = 1\nvalue = [0, 1]"] ;
119 -> 203 ;
204 [label="gini = 0.0\nsamples = 1\nvalue = [0, 1]"] ;
118 -> 204 ;
205 [label="gini = 0.0\nsamples = 1\nvalue = [0, 1]"] ;
117 -> 205 ;
206 [label="gini = 0.0\nsamples = 1\nvalue = [0, 1]"] ;
116 -> 206 ;
207 [label="gini = 0.0\nsamples = 1\nvalue = [0, 1]"] ;
115 -> 207 ;
208 [label="X[229] <= 14.9\ngini = 0.422\nsamples = 66\nvalue = [46, 20]"] ;
114 -> 208 ;
209 [label="X[505] <= 14.9\ngini = 0.414\nsamples = 65\nvalue = [46, 19]"] ;
208 -> 209 ;
210 [label="X[561] <= 14.9\ngini = 0.404\nsamples = 64\nvalue = [46, 18]"] ;
209 -> 210 ;
211 [label="X[476] <= 14.9\ngini = 0.394\nsamples = 63\nvalue = [46, 17]"] ;
210 -> 211 ;
212 [label="X[747] <= 14.9\ngini = 0.383\nsamples = 62\nvalue = [46, 16]"] ;
211 -> 212 ;
213 [label="X[573] <= 14.9\ngini = 0.371\nsamples = 61\nvalue = [46, 15]"] ;
212 -> 213 ;
214 [label="X[560] <= 14.9\ngini = 0.358\nsamples = 60\nvalue = [46, 14]"] ;
213 -> 214 ;
215 [label="X[137] <= 14.9\ngini = 0.344\nsamples = 59\nvalue = [46, 13]"] ;
214 -> 215 ;
216 [label="X[89] <= 14.9\ngini = 0.328\nsamples = 58\nvalue = [46, 12]"] ;
215 -> 216 ;
217 [label="X[392] <= 14.9\ngini = 0.311\nsamples = 57\nvalue = [46, 11]"] ;
216 -> 217 ;
218 [label="X[62] <= 14.9\ngini = 0.293\nsamples = 56\nvalue = [46, 10]"] ;
217 -> 218 ;
219 [label="X[345] <= 14.9\ngini = 0.274\nsamples = 55\nvalue = [46, 9]"] ;
218 -> 219 ;
220 [label="X[622] <= 14.9\ngini = 0.252\nsamples = 54\nvalue = [46, 8]"] ;
219 -> 220 ;
221 [label="X[777] <= 14.9\ngini = 0.229\nsamples = 53\nvalue = [46, 7]"] ;
220 -> 221 ;
222 [label="X[463] <= 14.9\ngini = 0.204\nsamples = 52\nvalue = [46, 6]"] ;
221 -> 222 ;
223 [label="X[328] <= 14.9\ngini = 0.177\nsamples = 51\nvalue = [46, 5]"] ;
222 -> 223 ;
224 [label="X[94] <= 14.9\ngini = 0.147\nsamples = 50\nvalue = [46, 4]"] ;
223 -> 224 ;
225 [label="X[374] <= 14.9\ngini = 0.115\nsamples = 49\nvalue = [46, 3]"] ;
224 -> 225 ;
226 [label="X[81] <= 14.9\ngini = 0.08\nsamples = 48\nvalue = [46, 2]"] ;
225 -> 226 ;
227 [label="X[267] <= 14.9\ngini = 0.042\nsamples = 47\nvalue = [46, 1]"] ;
226 -> 227 ;
228 [label="gini = 0.0\nsamples = 46\nvalue = [46, 0]"] ;
227 -> 228 ;
229 [label="gini = 0.0\nsamples = 1\nvalue = [0, 1]"] ;
227 -> 229 ;
230 [label="gini = 0.0\nsamples = 1\nvalue = [0, 1]"] ;
226 -> 230 ;
231 [label="gini = 0.0\nsamples = 1\nvalue = [0, 1]"] ;
225 -> 231 ;
232 [label="gini = 0.0\nsamples = 1\nvalue = [0, 1]"] ;
224 -> 232 ;
233 [label="gini = 0.0\nsamples = 1\nvalue = [0, 1]"] ;
223 -> 233 ;
234 [label="gini = 0.0\nsamples = 1\nvalue = [0, 1]"] ;
222 -> 234 ;
235 [label="gini = 0.0\nsamples = 1\nvalue = [0, 1]"] ;
221 -> 235 ;
236 [label="gini = 0.0\nsamples = 1\nvalue = [0, 1]"] ;
220 -> 236 ;
237 [label="gini = 0.0\nsamples = 1\nvalue = [0, 1]"] ;
219 -> 237 ;
238 [label="gini = 0.0\nsamples = 1\nvalue = [0, 1]"] ;
218 -> 238 ;
239 [label="gini = 0.0\nsamples = 1\nvalue = [0, 1]"] ;
217 -> 239 ;
240 [label="gini = 0.0\nsamples = 1\nvalue = [0, 1]"] ;
216 -> 240 ;
241 [label="gini = 0.0\nsamples = 1\nvalue = [0, 1]"] ;
215 -> 241 ;
242 [label="gini = 0.0\nsamples = 1\nvalue = [0, 1]"] ;
214 -> 242 ;
243 [label="gini = 0.0\nsamples = 1\nvalue = [0, 1]"] ;
213 -> 243 ;
244 [label="gini = 0.0\nsamples = 1\nvalue = [0, 1]"] ;
212 -> 244 ;
245 [label="gini = 0.0\nsamples = 1\nvalue = [0, 1]"] ;
211 -> 245 ;
246 [label="gini = 0.0\nsamples = 1\nvalue = [0, 1]"] ;
210 -> 246 ;
247 [label="gini = 0.0\nsamples = 1\nvalue = [0, 1]"] ;
209 -> 247 ;
248 [label="gini = 0.0\nsamples = 1\nvalue = [0, 1]"] ;
208 -> 248 ;
}